svm_type c_svc
kernel_type rbf
gamma 0.05
nr_class 2
total_sv 10
rho -2.07026
label 2 1
nr_sv 6 4
SV
48.80728823811047 1:0.407 2:0.284 3:0.267 4:0.43 5:0.286 6:0.195 7:0.795 8:0.575 9:0.522 10:0.831 11:0.031 12:0.066 13:0.037 14:0.038 15:0.922 16:0.05 17:0.388 18:0.312 
128.5006002025858 1:0.522 2:0.553 3:0.602 4:0.482 5:0.536 6:0.556 7:0.241 8:0.202 9:0.093 10:0.504 11:0.125 12:0.233 13:0.206 14:0.089 15:0.862 16:0.164 17:0 18:0.299 
282.6209059183522 1:0.351 2:0.352 3:0.423 4:0.338 5:0.4 6:0.335 7:0.127 8:0.165 9:0.05 10:0.245 11:0.072 12:0.137 13:0.113 14:0.038 15:0.918 16:0.087 17:0.208 18:0.206 
216.7694762363353 1:0.104 2:0.102 3:0.127 4:0.04 5:0.078 6:0.088 7:0.052 8:0.076 9:0.017 10:0.196 11:0.044 12:0.103 13:0.079 14:0.019 15:0.855 16:0.025 17:0.478 18:0.101 
7.804824177657242 1:0.033 2:0.089 3:0.11 4:0.071 5:0.127 6:0.142 7:0.013 8:0.039 9:0.004 10:0.13 11:0.051 12:0.091 13:0.074 14:0.023 15:0.918 16:0.059 17:0.061 18:0.167 
142.5728018644881 1:0.382 2:0.29 3:0.255 4:0.36 5:0.318 6:0.214 7:0.462 8:0.357 9:0.23 10:0.672 11:0.098 12:0.17 13:0.118 14:0.077 15:0.89 16:0.121 17:0.724 18:0.23 
-270.7740873681348 1:0.214 2:0.053 3:0.066 4:0.147 5:0.092 6:0.102 7:0.062 8:0.075 9:0.019 10:0.239 11:0.098 12:0.168 13:0.097 14:0.029 15:0.843 16:0.05 17:0.368 18:0.315 
-103.6602813083601 1:0.338 2:0.298 3:0.257 4:0.221 5:0.282 6:0.167 7:0.401 8:0.275 9:0.172 10:0.735 11:0.053 12:0.111 13:0.088 14:0.066 15:0.906 16:0.13 17:0.105 18:0.393 
-56.12204952660885 1:0.096 2:0.08 3:0.099 4:0.081 5:0.107 6:0.12 7:0.168 8:0.051 9:0.036 10:0.804 11:0.022 12:0.07 13:0.044 14:0.017 15:0.893 16:0.05 17:0.901 18:0.153 
-396.5194784344254 1:0.465 2:0.467 3:0.563 4:0.433 5:0.496 6:0.432 7:0.235 8:0.247 9:0.104 10:0.38 11:0.025 12:0.075 13:0.055 14:0.005 15:0.854 16:0.037 17:0.332 18:0.33 
