svm_type c_svc
kernel_type rbf
gamma 0.01
nr_class 2
total_sv 14
rho -139.95442911188994
label 0 1
nr_sv 7 7
SV
17930.030214952174 1:0.850149 2:0.590086 3:0.95032 4:0.862655 5:0.574063 6:0.887202 7:0.384191 11:0.188534 13:0.162712 17:0.787101 18:0.824725 
6312.727879796002 1:0.03422 2:0.011742 3:0.007589 4:0.018549 6:0.0486 7:0.133095 11:0.230049 13:0.142651 17:0.015225 18:0.039044 
15024.314878226596 1:0.08855 2:0.175782 3:0.29401 4:0.119944 5:0.154877 6:0.236275 7:0.075825 11:0.910409 13:0.873301 17:0.197741 18:0.067792 
49480.75162475094 1:0.022148 2:0.025878 3:0.019435 4:0.029219 5:0.025469 6:0.081246 7:0.034562 11:0.203784 13:0.116086 17:0.032286 18:0.024517 
451.71296575358286 1:0.305043 2:0.498866 3:0.904726 4:0.374165 5:0.495265 6:0.719674 7:0.395185 11:0.028323 13:0.042842 17:0.320571 18:0.213593 
44023.042231587846 1:0.258564 2:0.180136 3:0.264136 4:0.228351 5:0.157873 6:0.174345 7:0.168943 11:0.232926 13:0.130651 17:0.288317 18:0.277977 
12162.685808122216 1:0.209188 2:0.322978 3:0.571252 4:0.247571 5:0.301796 6:0.410459 7:0.33908 11:0.13976 13:0.050031 17:0.23107 18:0.188585 
-1342.4874427681214 1:1.0 2:0.577056 3:0.925501 4:1.0 5:0.659775 6:0.794135 7:0.930522 11:1.0 13:1.0 17:0.863556 18:1.0 
-11937.573499650296 1:0.258948 2:0.337916 3:0.588954 4:0.29955 5:0.317139 6:0.483536 7:0.286758 11:0.118178 13:0.053585 17:0.127156 18:0.212065 
-88527.42738220068 1:0.113406 2:0.042989 3:0.039351 4:0.110447 5:0.022231 6:0.064639 7:0.086878 11:0.311202 13:0.199775 17:0.053808 18:0.126554 
-6392.446023738592 1:0.021138 2:0.006819 3:0.00618 4:0.020598 5:0.011081 6:0.074309 7:0.143764 11:0.440454 13:0.274271 17:0.301599 18:0.022563 
-25238.388873497905 1:0.437237 2:0.42366 3:0.723259 4:0.46935 5:0.450789 6:0.627157 7:0.284382 11:0.295891 13:0.253993 17:0.759419 18:0.392891 
-10704.31601309222 1:0.565401 2:0.600115 3:0.830356 4:0.560423 5:0.638978 6:0.759234 7:0.088049 11:0.067804 13:0.023077 17:0.455677 18:0.558947 
-1242.626368241652 1:0.237323 2:0.45266 3:0.848757 4:0.292622 5:0.428592 6:0.65837 7:1.0 11:0.228159 13:0.236357 17:0.544243 18:0.140021 
