svm_type c_svc

kernel_type rbf

gamma 0.05

nr_class 2

total_sv 41

rho 0.2954649737512643

label 1 0

nr_sv 20 21

SV

1.0 2:1.0 3:1.0 4:1.0 5:0.964 6:1.0 7:1.0 8:0.279 9:0.211 10:0.107 11:0.588 12:0.095 13:0.138 14:0.105 15:0.056 16:0.851 17:0.118 18:0.479 19:0.611 

1.0 2:0.288 3:0.282 4:0.352 5:0.355 6:0.278 7:0.31 8:0.171 9:0.06 10:0.038 11:0.771 12:0.013 13:0.031 14:0.034 15:0.007 17:0.025 18:0.389 19:0.353 

1.0 2:1.0 3:1.0 4:1.0 5:0.964 6:1.0 7:1.0 8:0.279 9:0.211 10:0.107 11:0.588 12:0.095 13:0.138 14:0.105 15:0.056 16:0.851 17:0.118 18:0.479 19:0.611 

1.0 2:0.029 5:0.002 8:0.22 9:0.058 10:0.048 11:1.0 14:0.001 18:0.7 19:0.187 
1.0 2:0.431 3:0.427 4:0.437 5:0.514 6:0.511 7:0.333 8:0.35 9:0.204 10:0.127 11:0.815 12:0.059 13:0.135 14:0.109 15:0.035 16:0.919 17:0.099 18:0.785 19:0.474 

1.0 2:0.51 3:0.541 4:0.674 5:0.753 6:0.562 7:0.628 8:0.086 9:0.059 10:0.021 11:0.397 12:0.308 13:0.416 14:0.295 15:0.18 16:0.963 17:0.192 18:0.004 19:0.962 

1.0 2:0.212 3:0.239 4:0.297 5:0.332 6:0.252 7:0.282 8:0.184 9:0.077 10:0.045 11:0.743 12:0.05 13:0.112 14:0.093 15:0.041 16:0.863 17:0.102 18:0.164 19:0.387 

1.0 2:0.338 3:0.298 4:0.257 5:0.221 6:0.282 7:0.167 8:0.401 9:0.275 10:0.172 11:0.735 12:0.053 13:0.111 14:0.088 15:0.066 16:0.906 17:0.13 18:0.105 19:0.393 

1.0 2:0.335 3:0.354 4:0.441 5:0.458 6:0.401 7:0.448 8:0.213 9:0.101 10:0.058 11:0.75 12:0.022 13:0.064 14:0.054 15:0.027 16:0.912 17:0.059 18:0.03 19:0.467 

1.0 2:0.88 3:0.791 4:0.842 5:0.841 6:0.898 7:0.793 8:0.366 9:0.193 10:0.128 11:0.899 12:0.047 13:0.079 14:0.055 15:0.037 16:0.926 17:0.043 18:0.212 19:0.6 

1.0 2:0.39 3:0.407 4:0.507 5:0.399 6:0.457 7:0.511 8:0.237 9:0.124 10:0.07 11:0.748 12:0.009 13:0.036 14:0.028 15:0.008 17:0.025 18:0.544 19:0.301 

1.0 2:0.616 3:0.618 4:0.689 5:0.699 6:0.734 7:0.626 8:0.253 9:0.137 10:0.078 11:0.749 12:0.07 13:0.123 14:0.107 15:0.06 16:0.933 17:0.108 18:0.964 19:0.645 

1.0 2:0.475 3:0.503 4:0.446 5:0.536 6:0.549 7:0.425 8:0.335 9:0.205 10:0.123 11:0.769 12:0.023 13:0.061 14:0.051 15:0.03 16:0.855 17:0.071 18:0.105 19:0.425 

1.0 2:0.725 3:0.536 4:0.63 5:0.761 6:0.508 7:0.514 8:0.425 9:0.363 10:0.217 11:0.581 12:0.059 13:0.116 14:0.09 15:0.036 16:0.92 17:0.093 18:0.537 19:0.524 

1.0 2:0.903 3:0.805 4:0.798 5:1.0 6:0.847 7:0.403 8:0.473 9:0.279 10:0.199 11:0.902 12:0.226 13:0.28 14:0.189 15:0.141 16:0.948 17:0.183 18:0.377 19:0.999 

1.0 2:0.585 3:0.521 4:0.599 5:0.588 6:0.6 7:0.52 8:0.405 9:0.211 10:0.147 11:0.951 12:0.045 13:0.064 14:0.051 15:0.035 16:0.838 17:0.065 18:0.563 19:0.434 

1.0 2:0.225 3:0.25 4:0.311 5:0.303 6:0.28 7:0.312 8:0.183 9:0.06 10:0.041 11:0.821 12:0.014 13:0.032 14:0.028 15:0.017 17:0.034 18:0.393 19:0.447 

1.0 2:0.792 3:0.813 4:0.736 5:0.689 6:0.763 7:0.732 8:0.259 9:0.142 10:0.081 11:0.753 12:0.063 13:0.108 14:0.083 15:0.014 16:0.916 17:0.056 18:0.092 19:0.498 

1.0 2:0.582 3:0.519 4:0.586 5:0.559 6:0.53 7:0.586 8:0.229 9:0.142 10:0.073 11:0.652 12:0.013 13:0.033 14:0.024 15:0.002 17:0.015 18:0.537 19:0.376 

1.0 2:0.214 3:0.053 4:0.066 5:0.147 6:0.092 7:0.102 8:0.062 9:0.075 10:0.019 11:0.239 12:0.098 13:0.168 14:0.097 15:0.029 16:0.843 17:0.05 18:0.368 19:0.315 

-1.0 2:0.492 3:0.403 4:0.364 5:0.468 6:0.435 7:0.332 8:0.782 9:0.619 10:0.544 11:0.736 12:0.035 13:0.088 14:0.063 15:0.044 16:0.927 17:0.062 18:0.218 19:0.295 

-0.5655839530424361 2:0.059 3:0.066 4:0.082 5:0.045 6:0.083 7:0.093 8:0.065 9:0.055 10:0.016 11:0.318 12:0.024 13:0.076 14:0.062 15:0.029 16:0.853 17:0.08 18:0.245 19:0.06 

-1.0 2:0.351 3:0.352 4:0.423 5:0.338 6:0.4 7:0.335 8:0.127 9:0.165 10:0.05 11:0.245 12:0.072 13:0.137 14:0.113 15:0.038 16:0.918 17:0.087 18:0.208 19:0.206 

-1.0 2:0.615 3:0.615 4:0.678 5:0.537 6:0.6 7:0.616 8:0.302 9:0.284 10:0.139 11:0.47 12:0.239 13:0.352 14:0.344 15:0.227 16:0.863 17:0.263 18:0.02 19:0.339 

-1.0 2:0.602 3:0.629 4:0.699 5:0.534 6:0.582 7:0.607 8:0.405 9:0.403 10:0.225 11:0.463 12:0.272 13:0.404 14:0.424 15:0.254 16:0.861 17:0.307 18:0.198 19:0.359 

-1.0 2:0.562 3:0.544 4:0.66 5:0.506 6:0.547 7:0.549 8:0.233 9:0.357 10:0.133 11:0.183 12:0.264 13:0.438 14:0.468 15:0.169 16:0.86 17:0.272 18:0.146 19:0.285 

-1.0 2:0.694 3:0.664 4:0.729 5:0.616 6:0.664 7:0.628 8:0.316 9:0.284 10:0.144 11:0.504 12:0.363 13:0.488 14:0.479 15:0.316 16:0.977 17:0.35 18:0.588 19:0.411 

-1.0 2:0.309 3:0.31 4:0.304 5:0.275 6:0.327 7:0.249 8:0.133 9:0.135 10:0.046 11:0.343 12:0.17 13:0.303 14:0.286 15:0.127 16:0.86 17:0.18 18:0.069 19:0.201 
-0.5836460899078413 2:0.28 3:0.263 4:0.235 5:0.283 6:0.241 7:0.131 8:0.794 9:0.592 10:0.534 11:0.799 12:0.012 13:0.048 14:0.029 15:0.021 16:0.911 17:0.043 18:0.49 19:0.208 

-0.8507699570497225 2:0.544 3:0.562 4:0.659 5:0.482 6:0.542 7:0.568 8:0.334 9:0.349 10:0.173 11:0.414 12:0.422 13:0.491 14:0.517 15:0.377 16:0.853 17:0.368 18:0.105 19:0.351 

-1.0 2:0.25 3:0.273 4:0.313 5:0.205 6:0.256 7:0.243 8:0.214 9:0.209 10:0.087 11:0.408 12:0.096 13:0.207 14:0.165 15:0.039 16:0.86 17:0.152 18:0.196 19:0.158 

-1.0 2:0.725 3:0.531 4:0.571 5:0.703 6:0.495 7:0.498 8:0.732 9:0.635 10:0.524 11:0.638 12:0.15 13:0.249 14:0.195 15:0.127 16:0.967 17:0.186 18:0.754 19:0.404 

-1.0 2:0.469 3:0.439 4:0.485 5:0.398 6:0.415 7:0.434 8:0.178 9:0.211 10:0.075 11:0.299 12:0.223 13:0.385 14:0.361 15:0.122 16:0.861 17:0.226 18:0.115 19:0.26 
-1.0 2:0.73 3:0.651 4:0.493 5:0.631 6:0.645 7:0.432 8:0.698 9:0.641 10:0.506 11:0.581 12:0.218 13:0.316 14:0.311 15:0.312 16:0.894 17:0.35 18:0.594 19:0.409 

-1.0 2:0.191 3:0.225 4:0.281 5:0.186 6:0.241 7:0.27 8:0.122 9:0.123 10:0.041 11:0.338 12:0.116 13:0.224 14:0.169 15:0.046 16:0.907 17:0.152 18:0.26 19:0.13 

-1.0 2:0.302 3:0.333 4:0.321 5:0.281 6:0.337 7:0.255 8:0.19 9:0.256 10:0.091 11:0.243 12:0.053 13:0.095 14:0.074 15:0.071 16:0.938 17:0.062 18:0.014 19:0.204 

-1.0 2:0.416 3:0.407 4:0.495 5:0.411 6:0.428 7:0.355 8:0.236 9:0.211 10:0.094 11:0.466 12:0.166 13:0.274 14:0.218 15:0.103 16:0.861 17:0.158 18:0.036 19:0.271 

-1.0 2:0.407 3:0.284 4:0.267 5:0.43 6:0.286 7:0.195 8:0.795 9:0.575 10:0.522 11:0.831 12:0.031 13:0.066 14:0.037 15:0.038 16:0.922 17:0.05 18:0.388 19:0.312 

-1.0 2:0.382 3:0.29 4:0.255 5:0.36 6:0.318 7:0.214 8:0.462 9:0.357 10:0.23 11:0.672 12:0.098 13:0.17 14:0.118 15:0.077 16:0.89 17:0.121 18:0.724 19:0.23 

-1.0 2:0.256 3:0.273 4:0.335 5:0.251 6:0.284 7:0.278 8:0.184 9:0.196 10:0.074 11:0.349 12:0.092 13:0.208 14:0.182 15:0.061 16:0.919 17:0.133 18:0.949 19:0.164 

-1.0 2:0.725 3:0.531 4:0.571 5:0.703 6:0.495 7:0.498 8:0.732 9:0.635 10:0.524 11:0.638 12:0.15 13:0.249 14:0.195 15:0.127 16:0.967 17:0.186 18:0.754 19:0.404 
