svm_type c_svc
kernel_type rbf
gamma 0.5
nr_class 2
total_sv 76
rho 2.341781950996102
label 0 1
nr_sv 37 39
SV
100.0 1:0.082231 2:0.087445 3:0.099951 4:0.146477 5:0.141596 6:0.11654 7:0.001444 10:0.17042363788665807 11:0.003016 12:6.13E-4 13:0.00143 14:1.02E-4 15:0.15625 17:0.052522 
100.0 1:0.140045 2:0.213377 3:0.213759 4:0.169415 5:0.269297 6:0.252751 7:0.003588 8:0.009359 9:3.12E-4 10:0.13893525664298362 11:0.045838 12:0.020594 13:0.01666 14:0.002358 15:0.242188 17:0.464576 
100.0 1:0.451737 2:0.509164 3:0.456973 4:0.437616 5:0.50826 6:0.401186 7:0.028159 8:0.028078 9:0.002471 10:0.29861228016444946 11:6.03E-4 12:3.0E-5 13:6.6E-4 14:2.7E-5 17:0.02601 
100.0 1:0.303654 2:0.2564 3:0.238689 4:0.313804 5:0.305682 6:0.25195 7:0.208626 8:0.252705 9:0.063482 10:0.37727441439723836 11:0.010253 12:3.27E-4 13:0.008393 14:1.86E-4 15:0.335938 17:0.099495 
36.476524090634335 1:0.049132 2:0.120695 3:0.145185 4:0.102273 5:0.181991 6:0.156926 7:0.020311 8:0.014039 9:0.001374 10:0.3158533097787396 17:0.090828 
95.6207979721192 1:0.341763 2:0.264268 3:0.058451 4:0.317449 5:0.28774 6:0.07774 7:0.135982 8:0.243346 9:0.041733 10:0.21150558069442782 11:0.127865 12:0.032362 13:0.049492 14:0.003162 15:0.195313 17:0.108064 
100.0 1:0.123082 2:0.1852 3:0.184061 4:0.129492 5:0.247916 6:0.197918 7:0.002598 8:0.028078 9:6.79E-4 10:0.04778121000569935 11:0.072376 12:0.004302 13:0.018672 14:1.16E-4 15:0.1875 17:0.206355 
100.0 1:0.230405 2:0.2503 3:0.210866 4:0.326755 5:0.280336 6:0.225852 7:0.06299 8:0.046797 9:0.00639 10:0.474964455144522 17:0.109471 
95.74548377988013 1:0.396704 2:0.102107 3:0.104923 4:0.399192 5:0.155472 6:0.103448 7:0.296898 8:0.249342 9:0.087233 10:0.6026967440709559 17:0.316184 
54.1700436691072 1:0.297158 2:0.100763 3:0.103469 4:0.194937 5:0.141286 6:0.080819 7:0.361918 8:0.290143 9:0.119902 10:0.6488817314654621 11:0.003016 12:5.0E-5 13:0.003961 14:6.4E-5 15:0.40625 17:0.342804 
100.0 1:0.278078 2:0.325026 3:0.307752 4:0.273444 5:0.368569 6:0.311287 7:0.027221 8:0.056157 9:0.003681 10:0.1595279480933557 11:0.065139 12:0.01496 13:0.020385 14:0.001025 15:0.039063 17:0.253433 
48.73431407576043 1:0.534217 2:0.577155 3:0.559839 4:0.62068 5:0.624715 6:0.521566 7:0.032486 8:0.018719 9:0.002303 10:0.41649240729435194 11:0.025332 12:0.001625 13:0.023182 14:0.001809 15:0.445313 17:0.10142 
62.03274756885494 1:0.271103 2:0.298689 3:0.125419 4:0.273261 5:0.340391 6:0.158313 7:0.361089 8:0.424686 9:0.167812 10:0.40911368066217885 11:0.048854 12:0.00116 13:0.030962 14:3.39E-4 15:0.242188 17:0.35403 
100.0 1:0.473164 2:0.271189 3:0.118721 4:0.560455 5:0.411938 6:0.166675 7:0.247439 8:0.233987 9:0.069656 10:0.5164479889014865 11:0.152593 12:0.028708 13:0.082891 14:0.00793 15:0.375 17:0.152915 
8.241366886535758 1:0.316691 2:0.388509 3:0.444071 4:0.363094 5:0.408794 6:0.418972 7:0.01693 9:6.79E-4 10:0.4135636328971947 17:0.227139 
100.0 1:0.307086 2:0.112264 3:0.130295 4:0.228278 5:0.176539 6:0.136117 7:0.278243 8:0.224627 9:0.075129 10:0.624088560945483 17:0.168034 
100.0 1:0.254585 2:0.321142 3:0.35304 4:0.282505 5:0.391006 6:0.396763 7:0.00886 8:0.009359 9:5.89E-4 10:0.20791560099708137 11:0.026538 12:0.001994 13:0.012841 14:2.77E-4 15:0.234375 17:0.074263 
43.22259832075345 1:0.038029 2:0.07342 3:0.093143 4:0.056952 5:0.105794 6:0.061838 7:0.370545 8:0.326996 9:0.136144 10:0.5834447173550166 17:0.248414 
100.0 1:0.063575 2:0.099492 3:0.097931 4:0.149167 5:0.147063 6:0.104531 7:0.114528 8:0.205908 9:0.031143 10:0.20813769296140874 17:0.162467 
100.0 1:0.341763 2:0.264268 3:0.058451 4:0.317449 5:0.28774 6:0.07774 7:0.135982 8:0.243346 9:0.041733 10:0.21150558069442782 11:0.127865 12:0.032362 13:0.049492 14:0.003162 15:0.195313 17:0.108064 
100.0 1:0.352767 2:0.407918 3:0.446145 4:0.403252 5:0.460213 6:0.471429 7:0.073185 8:0.093595 9:0.011424 10:0.30772717776889863 11:0.237033 12:0.024113 13:0.16377 14:0.008211 17:0.048106 
100.0 1:0.110598 2:0.10572 3:0.090483 4:0.142427 5:0.125264 6:0.103141 7:0.177088 8:0.32919 9:0.068846 10:0.20089181586040863 11:0.230398 12:0.028284 13:0.05886 14:0.001509 15:0.1875 17:0.053551 
48.205161807752134 1:0.384034 2:0.151649 3:0.075151 4:0.356147 5:0.154117 6:0.077685 7:0.240872 8:0.314273 9:0.087638 10:0.34670786692330624 11:0.056092 12:0.004191 13:0.072423 14:0.005513 17:0.153185 
74.9583889684585 1:0.218894 2:0.03878 3:0.048102 4:0.232947 5:0.114163 6:0.021664 7:0.073783 8:0.175344 9:0.018781 10:0.12770896419958666 11:0.008444 12:3.95E-4 13:0.003803 14:8.7E-5 15:0.21875 17:0.434337 
100.0 1:0.278078 2:0.325026 3:0.307752 4:0.273444 5:0.368569 6:0.311287 7:0.027221 8:0.056157 9:0.003681 10:0.1595279480933557 11:0.065139 12:0.01496 13:0.020385 14:0.001025 15:0.039063 17:0.253433 
21.24426855364025 1:0.646076 2:0.704406 3:0.761925 4:0.687391 5:0.729189 6:0.799946 7:0.083846 8:0.037438 9:0.007296 10:0.7304209200489211 11:0.008444 12:8.62E-4 13:0.014098 14:0.001848 15:0.578125 17:0.731522 
100.0 1:0.266494 2:0.263003 3:0.272186 4:0.270802 5:0.318051 6:0.294102 7:0.134907 8:0.205908 9:0.035965 10:0.2673906121016796 11:0.015682 12:3.65E-4 13:0.010813 14:1.45E-4 15:0.382813 17:0.024699 
98.34070210962862 1:0.648902 2:0.317337 3:0.141909 4:0.643791 5:0.3563 6:0.153959 7:0.319656 8:0.243346 9:0.09163 10:0.6766472834806172 17:0.432893 
100.0 1:0.14722 2:0.194765 3:0.180945 4:0.14543 5:0.231656 6:0.197468 7:0.093758 8:0.159111 9:0.021187 10:0.22378554232018158 11:0.079614 12:0.008048 13:0.030789 14:8.57E-4 17:0.207896 
100.0 1:0.304256 2:0.182935 3:0.0875 4:0.294745 5:0.188863 6:0.069098 7:0.179809 8:0.290582 9:0.062533 10:0.2511849975356919 11:0.079011 12:0.012523 13:0.034121 14:0.001806 15:0.132813 17:0.126327 
0.3409589951932311 1:0.230491 2:0.160954 3:0.148744 4:0.308753 5:0.209853 6:0.132372 7:0.204316 8:0.17783 9:0.046456 10:0.5512089307336742 17:0.954871 
100.0 1:0.514024 2:0.354385 3:0.156987 4:0.553124 5:0.410436 6:0.16484 7:0.421992 8:0.374378 9:0.173817 10:0.586543863670014 11:0.223764 12:0.038861 13:0.109782 14:0.00752 15:0.34375 17:0.207206 
100.0 1:0.321517 2:0.377423 3:0.401412 4:0.352528 5:0.36727 6:0.387176 7:0.034218 8:0.056157 9:0.004356 10:0.20946720239169722 11:0.018094 12:0.001661 13:0.010593 14:4.22E-4 15:0.210938 17:0.371707 
3.3794335604557424 1:0.467082 2:0.520338 3:0.567097 4:0.498054 5:0.535025 6:0.541271 7:0.043055 9:0.001823 10:0.8237512651129018 17:0.180431 
100.0 1:0.16715 2:0.245593 3:0.204109 4:0.223043 5:0.290918 6:0.208399 7:0.004124 8:0.028078 9:7.86E-4 10:0.06274959993022865 11:0.08263 12:0.012071 13:0.017839 14:2.14E-4 15:0.242188 17:0.16576 
62.33905090098608 1:0.455586 2:0.519651 3:0.394691 4:0.480849 5:0.521696 6:0.421777 7:0.034317 8:0.037438 9:0.00339 10:0.2983912023186807 11:0.072979 12:0.035367 13:0.018169 14:0.001329 15:0.210938 17:0.56675 
99.17267724777385 1:0.113124 4:0.199908 7:0.040754 8:0.071951 9:0.005903 10:0.19719636783297062 17:0.009871 
-100.0 1:0.207138 2:0.169704 3:0.180182 4:0.245028 5:0.220813 6:0.191842 7:0.292053 8:0.467973 9:0.150036 10:0.2604611399909541 11:0.240651 12:0.013131 13:0.063638 14:7.91E-4 15:0.109375 17:0.203518 
-100.0 1:0.190111 2:0.245701 3:0.230594 4:0.218259 5:0.280293 6:0.232135 7:0.14295 8:0.233987 9:0.042186 10:0.24301728666494943 11:0.007841 12:1.4E-4 13:0.004149 14:3.0E-5 15:0.179688 17:0.037595 
-100.0 1:0.207735 2:0.26561 3:0.284789 4:0.258896 5:0.29876 6:0.285337 7:0.004059 8:0.009359 9:3.37E-4 10:0.1450899421749598 11:0.085645 12:0.016562 13:0.038616 14:0.002587 15:0.023438 17:0.192822 
-100.0 1:0.236507 2:0.075269 3:0.080499 4:0.203652 5:0.108047 6:0.072684 7:0.201651 8:0.172199 9:0.04472 10:0.56124261975219 17:0.217849 
-100.0 1:0.176584 2:0.231232 3:0.237449 4:0.183492 5:0.283091 6:0.290361 7:0.023122 8:0.056157 9:0.003286 10:0.13027164179709924 11:0.008444 12:6.43E-4 13:0.002248 14:4.2E-5 15:0.179688 17:0.165209 
-100.0 1:0.168513 2:0.096281 3:0.099804 4:0.171266 5:0.167192 6:0.095378 7:0.122097 8:0.131032 9:0.02288 10:0.40571029877960973 11:0.004222 12:1.33E-4 13:0.002185 14:2.6E-5 17:0.092473 
-81.59666618769965 1:0.114512 2:0.069835 3:0.020209 4:0.14206 5:0.107608 6:0.033165 7:0.017591 8:0.084235 9:0.003775 10:0.03131091049592425 11:0.099517 12:0.003577 13:0.022114 14:0.001191 15:0.4375 17:0.435489 
-22.734266904966695 1:0.217768 2:0.154985 3:0.156469 4:0.218679 5:0.226605 6:0.16972 7:0.029296 8:0.093595 9:0.005655 10:0.0780283101336811 11:0.127262 12:0.012518 13:0.036212 14:0.001735 15:0.257813 17:0.087581 
-100.0 1:0.149324 2:0.192318 3:0.241606 4:0.216928 5:0.317292 6:0.264863 7:0.006453 9:2.19E-4 10:0.24906244739259978 11:0.003619 12:8.36E-4 13:0.00176 14:1.48E-4 15:0.164063 17:0.157487 
-100.0 1:0.282779 2:0.300319 3:0.235034 4:0.334235 5:0.328682 6:0.258226 7:0.033 8:0.084235 9:0.005666 10:0.11771482580485519 11:0.139928 12:0.019104 13:0.040817 14:0.002184 15:0.195313 17:0.06429 
-100.0 1:0.234079 2:0.141355 3:0.108929 4:0.215053 5:0.1799 6:0.132506 7:0.239013 8:0.208394 9:0.061203 10:0.5627161340177957 11:0.00965 12:3.04E-4 13:0.004589 14:6.2E-5 15:0.117188 17:0.106855 
-100.0 1:0.384505 2:0.412768 3:0.416142 4:0.401967 5:0.478665 6:0.459511 7:0.06985 8:0.093595 9:0.010986 10:0.29027419737586685 11:0.00965 12:4.88E-4 13:0.002703 14:3.8E-5 17:0.466809 
-23.447080006342212 1:0.470374 2:0.375699 3:0.218709 4:0.482365 5:0.440995 6:0.266258 7:0.248732 8:0.318222 9:0.091294 10:0.3567577818387592 11:0.187575 12:0.021047 13:0.158316 14:0.0131 15:0.359375 17:0.350198 
-49.81999007245564 1:0.112007 2:0.109629 3:0.063851 4:0.136097 5:0.174548 6:0.082572 7:0.011363 8:0.056157 9:0.002152 10:0.04635333107522934 11:0.001206 12:3.9E-5 13:1.57E-4 14:1.0E-6 17:0.114125 
-100.0 1:0.116475 2:0.114338 3:0.098588 4:0.123351 5:0.156657 6:0.078831 7:0.111084 8:0.172565 9:0.026195 10:0.2566358847880188 11:0.050663 12:0.003697 13:0.011615 14:2.16E-4 15:0.03125 17:0.096817 
-13.359762171280224 1:0.503795 2:0.544683 3:0.587984 4:0.526748 5:0.591133 6:0.598352 7:0.151275 8:0.149751 9:0.030763 10:0.4583552213922225 11:0.0193 12:9.22E-4 13:0.020731 14:7.93E-4 15:0.359375 17:0.197119 
-21.87137008977549 1:0.472721 2:0.535896 3:0.56205 4:0.49228 5:0.571131 6:0.546787 7:0.167189 8:0.16847 9:0.036996 10:0.4565713868476936 11:0.024125 12:0.001159 13:0.025681 14:0.00101 15:0.375 17:0.040901 
-100.0 1:0.34904 2:0.337811 3:0.143642 4:0.348171 5:0.386451 6:0.160494 7:0.157934 8:0.205908 9:0.041413 10:0.33434474757574956 17:0.005225 
-100.0 1:0.475802 2:0.523123 3:0.550289 4:0.475967 5:0.547955 6:0.570679 7:0.0908 8:0.102954 9:0.014722 10:0.36324814061362287 11:0.07117 12:0.005963 13:0.057241 14:0.002672 15:0.328125 17:0.133449 
-100.0 1:0.20685 2:0.280139 3:0.315503 4:0.240294 5:0.307135 6:0.321688 7:0.016744 8:0.037438 9:0.002004 10:0.1451051539533384 11:0.005428 12:3.23E-4 13:0.002122 14:3.8E-5 15:0.132813 17:0.158556 
-100.0 1:0.219075 2:0.058074 3:0.064764 4:0.262529 5:0.114716 6:0.052631 7:0.044436 8:0.133519 9:0.010103 10:0.08108182111354274 11:0.109168 12:0.004005 13:0.036369 14:0.002157 15:0.046875 17:0.008463 
-100.0 1:0.387127 2:0.243067 3:0.110857 4:0.421055 5:0.262361 6:0.101117 7:0.274333 8:0.209125 9:0.069845 10:0.6619811008865425 17:0.34421 
-100.0 1:0.192691 2:0.277398 3:0.303505 4:0.206486 5:0.292945 6:0.32497 7:0.010646 8:0.028078 9:0.001243 10:0.12675974922876285 11:0.010253 12:9.35E-4 13:0.004432 14:1.26E-4 15:0.164063 17:0.07982 
-100.0 1:0.233356 2:0.11706 3:0.111565 4:0.254905 5:0.190719 6:0.105699 7:0.402861 8:0.439895 9:0.192292 10:0.45355438413594057 11:0.033172 12:7.77E-4 13:0.005658 14:2.8E-5 15:0.054688 17:0.117024 
-14.262915394845658 1:0.171236 2:0.206554 3:0.164276 4:0.231103 5:0.259379 6:0.182985 7:0.05035 8:0.131032 9:0.010934 10:0.10926214761915384 11:0.058504 12:0.005327 13:0.013281 14:2.6E-4 15:0.15625 17:0.048666 
-17.71428428962577 1:0.281759 2:0.210978 3:0.209941 4:0.270306 5:0.283442 6:0.238974 7:0.0378 8:0.089792 9:0.006562 10:0.13114682611314726 11:0.451146 12:0.053702 13:0.222708 14:0.039695 15:0.09375 17:0.144327 
-28.553267533207425 1:0.358152 2:0.297209 3:0.242023 4:0.394262 5:0.37293 6:0.254653 7:0.040743 8:0.074876 9:0.006072 10:0.18790197124365415 17:0.017039 
-45.88749580536913 1:0.561985 2:0.560492 3:0.302185 4:0.566705 5:0.577726 6:0.290588 7:0.225039 8:0.230623 9:0.062991 10:0.4656467338283584 11:0.194813 12:0.02713 13:0.178386 14:0.017184 17:0.235467 
-56.140284921737745 1:0.373905 2:0.261351 3:0.136274 4:0.375968 5:0.286778 6:0.128955 7:0.30739 8:0.244662 9:0.088702 10:0.641823466297798 11:0.304584 12:0.135257 13:0.192186 14:0.033958 15:0.53125 17:0.14641 
-40.74364538964581 1:0.455274 2:0.487851 3:0.515741 4:0.477166 5:0.523305 6:0.529525 7:0.133288 8:0.131032 9:0.024744 10:0.45195004857627896 11:0.004222 12:6.4E-5 13:0.004526 14:5.5E-5 17:0.487474 
-100.0 1:0.150924 2:0.06264 3:0.033227 4:0.121575 5:0.08757 6:0.039535 7:0.025629 8:0.102954 9:0.005584 10:0.043484389673027896 11:0.051267 12:0.001754 13:0.008298 14:2.37E-4 15:0.273438 17:0.150374 
-100.0 1:0.556174 2:0.333882 3:0.14865 4:0.557495 5:0.344087 6:0.148872 7:0.311788 8:0.245686 9:0.090222 10:0.6499739371530446 17:0.068983 
-82.58367900254717 1:0.132359 2:0.162719 3:0.161848 4:0.138792 5:0.219046 6:0.184605 7:0.108053 8:0.262065 9:0.036413 10:0.12092451104273698 11:0.11158 12:0.003535 13:0.024503 14:1.67E-4 15:0.132813 17:0.370677 
-100.0 1:0.223057 2:0.275851 3:0.221367 4:0.276877 5:0.304801 6:0.252441 7:0.046527 8:0.112314 9:0.009109 10:0.12644334423848824 11:0.015078 12:5.57E-4 13:0.003348 14:3.3E-5 17:0.357519 
-8.609876402388135 1:0.328633 2:0.354723 3:0.200993 4:0.351479 5:0.405407 6:0.305721 7:0.047008 8:0.121673 9:0.009779 10:0.1111372528339543 11:0.048854 12:0.002075 13:0.01108 14:2.85E-4 15:0.226563 17:0.110303 
-100.0 1:0.467609 2:0.218474 3:0.106523 4:0.487473 5:0.251425 6:0.122644 7:0.262768 8:0.208394 9:0.066879 10:0.6311123460821558 11:0.079011 12:0.00798 13:0.064266 14:0.004854 15:0.429688 17:0.37326 
-100.0 1:0.540505 2:0.456518 3:0.208219 4:0.546206 5:0.500946 6:0.112757 7:0.102468 8:0.187189 9:0.02612 10:0.201863341439521 11:0.088661 12:0.005694 13:0.078741 14:0.005863 15:0.414063 17:0.171014 
-56.62989422659135 1:0.371283 2:0.438198 3:0.449472 4:0.406013 5:0.44981 6:0.47467 7:0.02861 8:0.028078 9:0.002503 10:0.3030419500282939 11:0.183957 12:0.030151 13:0.11992 14:0.005278 15:0.46875 17:0.317611 
-88.27004010905573 1:0.418896 2:0.22103 3:0.138531 4:0.475808 5:0.191267 6:0.137611 7:0.317191 8:0.245686 9:0.091701 10:0.6635448717038611 11:0.098914 12:0.02235 13:0.039119 14:0.002279 15:0.382813 17:0.486331 
