svm_type c_svc
kernel_type rbf
gamma 0.1
nr_class 2
total_sv 34
rho -4.766440162058067
label 0 1
nr_sv 17 17
SV
21.487943995610095 1:0.261165 2:0.061201 3:0.132002 4:0.027566 5:0.207266 6:0.051429 7:0.15235 8:0.038002 9:0.569343 10:0.49077 11:0.458873 12:0.538689 13:0.568584 14:0.558462 15:0.128675 16:0.266667 17:0.098308 18:0.123999 19:0.267886 20:0.232558 21:0.168 22:0.040921 23:0.144521 24:0.279412 25:0.357798 26:0.208017 27:0.175727 28:0.053905 29:0.261603 30:0.238462 31:0.19214 32:0.022727 33:0.140014 34:0.252874 35:0.313131 36:0.194649 37:0.167011 38:0.053277 39:0.228692 40:0.210526 41:0.153439 42:0.01506 43:0.138731 44:0.376 45:0.269231 46:0.166283 47:0.125115 48:0.052174 49:0.174843 50:0.166667 51:0.151261 52:0.009899 53:0.127863 54:0.364407 55:0.238095 56:0.127389 57:0.122899 58:0.048524 59:0.004707 60:0.516121 61:0.061086 62:0.075371 63:0.084441 64:0.056937 65:0.045533 66:0.00955 
46.0365657114837 1:0.325816 2:0.085049 3:0.15848 4:0.036921 5:0.248037 6:0.068196 7:0.167079 8:0.044889 9:0.548875 10:0.382248 11:0.376244 12:0.558858 13:0.384988 14:0.414078 15:0.123139 16:0.3 17:0.104722 18:0.078947 19:0.305541 20:0.238372 21:0.204 22:0.033543 23:0.167381 24:0.691176 25:0.238532 26:0.192528 27:0.187781 28:0.081253 29:0.310127 30:0.3 31:0.170306 32:0.025853 33:0.156387 34:0.218391 35:0.343434 36:0.21804 37:0.139316 38:0.080736 39:0.28692 40:0.27193 41:0.174603 42:0.019921 43:0.16199 44:0.448 45:0.394231 46:0.195528 47:0.133175 48:0.079736 49:0.255346 50:0.269231 51:0.168067 52:0.023889 53:0.17343 54:0.389831 55:0.333333 56:0.187653 57:0.128522 58:0.076319 59:0.004043 60:0.50686 61:0.067442 62:0.08657 63:0.124915 64:0.090385 65:0.064397 66:0.030177 
145.2607520360871 1:0.096753 2:0.008889 3:0.034581 4:0.004151 5:0.036186 6:0.004623 7:0.04471 8:0.005302 9:0.551807 10:0.372685 11:0.484554 12:0.599538 13:0.393313 14:0.512943 15:0.560354 16:0.5 17:0.394181 18:0.482921 19:0.271114 20:0.151163 21:0.076 22:0.013515 23:0.138378 24:0.323529 25:0.192661 26:0.080424 27:0.057813 28:0.010893 29:0.212377 30:0.138462 31:0.078603 32:0.01006 33:0.11154 34:0.252874 35:0.151515 36:0.065743 37:0.045393 38:0.009691 39:0.12827 40:0.114035 41:0.042328 42:0.008895 43:0.0913 44:0.36 45:0.211538 46:0.0536 47:0.020852 48:0.007899 49:0.060377 50:0.102564 51:0.016807 52:0.00606 53:0.054243 54:0.40678 55:0.130952 56:0.047938 57:0.009499 58:0.004604 59:0.438812 60:0.627648 61:0.013229 62:0.013135 63:0.014661 64:0.004553 65:0.00114 66:0.002056 
5.953482487017393 1:0.170083 2:0.043099 3:0.197653 4:0.053104 5:0.173312 6:0.045551 7:0.203722 8:0.052343 9:0.53523 10:0.408647 11:0.232655 12:0.724252 13:0.271153 15:0.133907 16:0.133333 17:0.064977 18:0.323872 19:0.214632 20:0.412791 21:0.2 22:0.114466 23:0.172897 24:0.382353 25:0.302752 26:0.520112 27:0.284208 28:0.038075 29:0.175809 30:0.353846 31:0.148472 32:0.068613 33:0.149544 34:0.425287 35:0.383838 36:0.432384 37:0.185474 38:0.037287 39:0.164557 40:0.350877 41:0.121693 42:0.059838 43:0.165418 44:0.576 45:0.336538 46:0.416398 47:0.136534 48:0.036766 49:0.149686 50:0.217949 51:0.134454 52:0.039612 53:0.170754 54:0.627119 55:0.238095 56:0.251592 57:0.145658 58:0.034829 59:0.002082 60:0.573813 61:0.062699 62:0.038683 63:0.007034 64:0.012071 65:0.021487 66:0.077536 
44.469265411454884 1:0.082164 2:0.015534 3:0.183199 4:0.046807 5:0.071299 6:0.015177 7:0.136909 8:0.031486 9:0.788247 10:0.761096 11:0.438387 12:0.778188 13:0.870426 14:0.581598 15:0.41768 16:0.166667 17:0.170934 18:0.846615 19:0.150619 20:0.406977 21:0.076 22:0.096444 23:0.110718 24:0.838235 25:0.53211 26:0.452324 27:0.143275 28:0.011622 29:0.130098 30:0.407692 31:0.061135 32:0.070313 33:0.10074 34:0.356322 35:0.191919 36:0.432384 37:0.083925 38:0.011205 39:0.098734 40:0.315789 41:0.068783 42:0.047986 43:0.095892 44:0.544 45:0.192308 46:0.333027 47:0.072411 48:0.010446 49:0.060377 50:0.128205 51:0.058824 52:0.011679 53:0.066769 54:0.601695 55:0.142857 56:0.133758 57:0.058824 58:0.008577 59:0.526922 60:0.692635 61:0.028713 62:0.017996 63:0.005468 64:0.005573 65:0.003057 66:0.021116 
52.56787528608616 1:0.183395 2:0.053604 3:0.274219 4:0.092813 5:0.187623 6:0.056716 7:0.256946 8:0.069844 9:0.847822 10:0.900457 11:0.30999 12:0.846675 13:0.796312 14:0.432663 15:0.248276 16:0.133333 17:0.101808 18:0.571751 19:0.268962 20:0.360465 21:0.312 22:0.159659 23:0.211299 24:0.558824 25:0.321101 26:0.465747 27:0.396708 28:0.051065 29:0.228551 30:0.346154 31:0.235808 32:0.097551 33:0.188422 34:0.425287 35:0.262626 36:0.424091 37:0.277792 38:0.050187 39:0.192405 40:0.350877 41:0.206349 42:0.083467 43:0.18381 44:0.536 45:0.278846 46:0.416398 47:0.227887 48:0.049124 49:0.163522 50:0.25641 51:0.184874 52:0.066713 53:0.209713 54:0.576271 55:0.27381 56:0.294586 57:0.20028 58:0.046785 59:0.2286 60:0.88942 61:0.111999 62:0.085127 63:0.011003 64:0.011396 65:0.006448 66:0.049586 
15.410179397456249 1:0.164916 2:0.026281 3:0.171767 4:0.042097 5:0.075032 6:0.014949 7:0.126265 8:0.025528 9:0.7704 10:0.52579 11:0.531266 12:0.910619 13:0.512317 14:0.516844 15:1.0 16:0.533333 17:0.659396 18:0.987669 19:0.637977 20:0.55814 21:0.224 22:0.235471 23:0.634557 24:1.0 25:0.183486 26:0.243455 27:0.127513 28:0.029217 29:0.492968 30:0.646154 31:0.122271 32:0.175155 33:0.570395 34:1.0 35:0.242424 36:0.279792 37:0.065462 38:0.02623 39:0.326582 40:0.552632 41:0.089947 42:0.167082 43:0.471189 44:0.976 45:0.278846 46:0.250322 47:0.04518 48:0.02234 49:0.144654 50:0.269231 51:0.05042 52:0.038892 53:0.261645 54:1.0 55:0.154762 56:0.119745 57:0.027311 58:0.013153 59:0.264916 60:0.732089 61:0.089606 62:0.024998 63:0.011592 64:0.013325 65:0.010239 66:0.009923 
9.878040043160746 1:0.031448 2:0.002346 3:0.027118 4:0.003071 5:0.019983 6:0.001984 7:0.016601 8:0.00174 9:0.486571 10:0.335022 11:0.235755 12:0.549146 13:0.516764 14:0.386665 15:0.304672 16:0.166667 17:0.132266 18:0.616093 19:0.090371 20:0.046512 21:0.056 22:0.002517 23:0.04996 24:0.867647 25:0.082569 26:0.119422 27:0.124732 28:0.002842 29:0.079466 30:0.061538 31:0.065502 32:0.002043 33:0.037378 34:0.068966 35:0.090909 36:0.100661 37:0.088186 38:0.002634 39:0.036287 40:0.087719 41:0.015873 42:0.005762 43:0.032284 44:0.344 45:0.153846 46:0.101809 47:0.019707 48:0.001837 49:0.011321 51:0.016807 52:1.95E-4 53:0.006811 56:0.006369 57:0.016807 58:7.73E-4 59:0.142505 60:0.537491 61:0.004151 62:0.00376 63:0.004147 64:0.001178 65:1.59E-4 66:6.79E-4 
3.029078804453897 1:0.017914 2:0.001345 3:0.007061 4:6.7E-4 5:0.013607 6:0.001383 7:0.015412 8:0.001368 9:0.657256 10:0.438436 11:0.066903 12:0.685204 13:0.763083 14:0.152462 15:0.351769 16:0.1 17:0.121893 18:0.891137 19:0.058634 20:0.081395 21:0.04 22:0.010061 23:0.041859 24:0.117647 25:0.009174 26:0.206866 27:0.139567 28:0.001572 29:0.0218 30:0.023077 31:0.0131 32:0.001538 33:0.018104 34:0.149425 35:0.060606 36:0.091183 37:0.048677 38:0.001232 39:0.023629 40:0.035088 41:0.010582 42:0.00219 43:0.025567 44:0.4 45:0.115385 46:0.066237 47:0.019228 48:0.001326 49:0.012579 50:0.025641 51:0.016807 52:7.81E-4 53:0.012324 54:0.432203 56:0.042766 57:0.019862 58:8.41E-4 59:0.660658 60:0.673841 61:0.003934 62:0.003122 63:4.36E-4 64:4.74E-4 65:2.2E-4 66:4.25E-4 
69.45784576914696 1:0.141353 2:0.023503 3:0.092232 4:0.015918 5:0.068953 6:0.014438 7:0.132475 8:0.022147 9:0.97103 10:0.913472 11:0.225978 12:0.896201 13:0.882734 14:0.368238 15:0.80129 16:0.466667 17:0.502824 18:0.847083 19:0.300161 20:0.197674 21:0.136 22:0.046391 23:0.220273 24:0.367647 25:0.155963 26:0.108684 27:0.095736 28:0.026301 29:0.219409 30:0.176923 31:0.087336 32:0.021981 33:0.1782 34:0.390805 35:0.191919 36:0.089603 37:0.053712 38:0.024857 39:0.145992 40:0.140351 41:0.068783 42:0.014805 43:0.164504 44:0.56 45:0.211538 46:0.070684 47:0.037914 48:0.02334 49:0.113208 50:0.153846 51:0.05042 52:0.016787 53:0.162201 54:0.618644 55:0.214286 56:0.076433 57:0.029794 58:0.021267 59:0.101479 60:0.993867 61:0.057871 62:0.046442 63:0.011473 64:0.006491 65:0.001024 66:0.002315 
6.641447977232078 1:0.209737 2:0.051265 3:0.189011 4:0.049293 5:0.174173 6:0.045348 7:0.199573 8:0.051102 9:0.078505 10:0.145652 11:0.109925 12:0.411461 13:0.126461 14:0.06601 15:0.121985 16:0.233333 17:0.086995 18:0.151481 19:0.374933 20:0.383721 21:0.3 22:0.123549 23:0.278771 24:1.0 25:0.33945 26:0.344936 27:0.297066 28:0.041055 29:0.291139 30:0.330769 31:0.209607 32:0.0584 33:0.195957 34:0.988506 35:0.171717 36:0.287632 37:0.194706 38:0.039389 39:0.192405 40:0.236842 41:0.148148 42:0.022259 43:0.103249 44:0.968 45:0.221154 46:0.204483 47:0.129682 48:0.037175 49:0.142138 50:0.217949 51:0.10084 52:0.025367 53:0.068837 54:0.542373 55:0.214286 56:0.181239 57:0.087395 58:0.034175 59:0.067175 60:0.093745 61:0.054186 62:0.036549 63:0.019463 64:0.045817 65:0.027978 66:0.084758 
25.994987105433854 1:0.070252 2:0.006151 3:0.041508 4:0.005245 5:0.034735 6:0.004016 7:0.03288 8:0.003695 9:0.647437 10:0.581415 11:0.764777 12:0.644498 13:0.555087 14:0.785901 15:0.492755 16:0.333333 17:0.277033 18:0.629331 19:0.182356 20:0.110465 21:0.072 22:0.009261 23:0.095557 24:0.044118 25:0.110092 26:0.099862 27:0.085996 28:0.007633 29:0.142757 30:0.107692 31:0.069869 32:0.00531 33:0.077311 34:0.16092 35:0.141414 36:0.081705 37:0.059307 38:0.006882 39:0.089451 40:0.078947 41:0.058201 42:0.004572 43:0.070257 44:0.392 45:0.153846 46:0.054804 47:0.041374 48:0.005719 49:0.030189 50:0.038462 51:0.016807 52:0.002172 53:0.033364 54:0.440678 55:0.119048 56:0.026388 57:0.012138 58:0.003261 59:0.230562 60:0.621312 61:0.010277 62:0.009458 63:0.012301 64:0.001258 65:5.2E-4 66:5.04E-4 
2.9876217408226 1:0.014964 2:6.65E-4 3:0.001446 4:1.3E-4 5:0.003303 6:3.02E-4 7:0.003739 8:3.13E-4 9:0.3011 10:0.320072 11:0.291627 12:0.333516 13:0.42675 14:0.392208 15:0.464248 16:0.166667 17:0.186869 18:0.941609 19:0.076923 20:0.023256 21:0.048 23:0.043896 24:0.25 25:0.018349 26:0.097945 27:0.117314 28:8.23E-4 29:0.037975 30:0.023077 31:0.017467 32:8.0E-4 33:0.016488 34:0.402299 35:0.020202 36:0.063803 37:0.041317 38:4.18E-4 39:0.005063 42:8.1E-5 43:0.003244 44:0.584 46:0.012879 47:0.003896 52:1.42E-4 56:0.006369 59:0.512008 60:0.255786 61:0.003449 62:7.91E-4 63:5.65E-4 64:2.73E-4 65:1.39E-4 66:5.64E-4 
16.893162069563758 1:0.09818 2:0.010551 3:0.06075 4:0.008741 5:0.04395 6:0.006285 7:0.06119 8:0.007841 9:0.906979 10:0.559877 11:0.254823 12:0.86009 13:0.852514 14:0.337581 15:0.745018 16:0.433333 17:0.452216 18:0.828114 19:0.250134 20:0.19186 21:0.092 22:0.023339 23:0.157456 24:0.808824 25:0.073394 26:0.114685 27:0.077577 28:0.010677 29:0.14346 30:0.107692 31:0.048035 32:0.008128 33:0.094409 34:0.390805 35:0.060606 36:0.061635 37:0.03381 38:0.00917 39:0.075105 40:0.078947 41:0.026455 42:0.003069 43:0.061689 44:0.56 45:0.115385 46:0.042697 47:0.014185 48:0.007927 49:0.036478 50:0.038462 51:0.016807 52:0.001703 53:0.043945 54:0.627119 55:0.119048 56:0.020607 57:0.010404 58:0.006384 59:0.395957 60:0.923652 61:0.02796 62:0.01689 63:0.004188 64:0.003913 65:0.001987 66:0.004173 
18.695751386573495 1:0.447408 2:0.120435 3:0.183795 4:0.047059 5:0.219817 6:0.064959 7:0.235349 8:0.058128 9:0.579773 10:0.497976 11:0.448628 12:0.525214 13:0.42763 14:0.443107 15:0.498202 16:0.633333 17:0.425172 18:0.269776 19:0.527165 20:0.25 21:0.196 22:0.034148 23:0.294156 24:0.941176 25:0.412844 26:0.09491 27:0.094924 28:0.12255 29:0.477496 30:0.261538 31:0.183406 32:0.026695 33:0.246294 34:0.770115 35:0.30303 36:0.094892 37:0.083925 38:0.120904 39:0.340084 40:0.201754 41:0.153439 42:0.023023 43:0.19905 44:0.496 45:0.259615 46:0.076677 47:0.069287 48:0.1178 49:0.267925 50:0.153846 51:0.151261 52:0.01901 53:0.186565 54:0.372881 55:0.22619 56:0.058433 57:0.072829 58:0.11369 59:0.005444 60:0.473629 61:0.08461 62:0.101126 63:0.220914 64:0.230423 65:0.036155 66:0.017318 
1.204648072698774 1:0.034281 2:0.004159 3:0.040877 4:0.005141 5:0.044833 6:0.005588 7:0.042479 8:0.005587 9:0.281786 10:0.082514 11:0.111206 12:0.408238 13:0.388951 14:0.175914 15:0.123813 16:0.033333 17:0.035757 18:0.517098 19:0.099516 20:0.168605 21:0.148 22:0.035888 23:0.092379 24:0.882353 25:0.100917 26:0.45125 27:0.327065 28:0.003478 29:0.061885 30:0.092308 31:0.091703 32:0.009792 33:0.042077 34:0.827586 35:0.121212 36:0.259888 37:0.176243 38:0.002982 39:0.046414 40:0.087719 41:0.058201 42:0.004944 43:0.031644 44:0.88 45:0.153846 46:0.194296 47:0.094663 48:0.002626 49:0.015094 50:0.025641 51:0.016807 52:5.25E-4 53:0.001176 54:0.135593 56:0.06242 57:0.024276 58:0.001392 59:0.291893 60:0.430617 61:0.00688 62:0.002506 63:0.004138 64:0.005082 65:0.003646 66:0.003367 
2.684895403165116 1:0.209136 2:0.031495 3:0.063027 4:0.0092 5:0.127331 6:0.021472 7:0.05876 8:0.0108 9:0.671048 10:0.547028 11:0.562377 12:0.649224 13:0.56418 14:0.585787 15:0.313912 16:0.4 17:0.222806 18:0.265965 19:0.266272 20:0.093023 21:0.128 22:0.00768 23:0.14282 24:0.926471 25:0.12844 26:0.073111 27:0.105817 28:0.032707 29:0.244023 30:0.123077 31:0.113537 32:0.003881 33:0.127549 34:0.241379 35:0.181818 36:0.075782 37:0.078386 38:0.03195 39:0.202532 40:0.122807 41:0.111111 42:0.002873 43:0.130803 44:0.408 45:0.211538 46:0.07124 47:0.070302 48:0.030783 49:0.161006 50:0.102564 51:0.10084 52:0.003395 53:0.117809 54:0.440678 55:0.178571 56:0.058121 57:0.065546 58:0.027275 59:0.014609 60:0.575568 61:0.028946 62:0.032101 63:0.047846 64:0.049034 65:0.016748 66:0.004088 
-9.527259452815871 1:0.069649 2:0.013614 3:0.107271 4:0.019984 5:0.065337 6:0.014211 7:0.136756 8:0.023821 9:0.63601 10:0.640557 11:0.081035 12:0.63275 13:0.637648 14:0.228123 15:0.320459 16:0.133333 17:0.125054 18:0.728197 19:0.197418 20:0.325581 21:0.096 22:0.166027 23:0.139072 24:0.5 25:0.33945 26:0.429504 27:0.179745 28:0.012795 29:0.148383 30:0.315385 31:0.052402 32:0.097716 33:0.112628 34:0.333333 35:0.383838 36:0.390919 37:0.083925 38:0.011939 39:0.119831 40:0.27193 41:0.026455 42:0.079173 43:0.114787 44:0.432 45:0.278846 46:0.326357 47:0.033761 48:0.011228 49:0.083019 50:0.205128 51:0.016807 52:0.03975 53:0.107715 54:0.440678 55:0.285714 56:0.237261 57:0.018207 58:0.008955 59:0.29679 60:0.65726 61:0.023442 62:0.023424 63:0.018462 64:0.006752 65:7.31E-4 66:7.43E-4 
-4.477707481564105 1:1.0 2:1.0 3:1.0 4:1.0 5:1.0 6:1.0 7:1.0 8:1.0 9:0.536851 10:0.534268 11:0.254514 12:0.566121 13:0.593874 14:0.299317 15:0.055462 16:0.166667 17:0.046994 18:0.107735 19:0.905863 20:1.0 21:1.0 22:0.298541 23:0.851697 24:0.985294 25:0.862385 26:1.0 27:1.0 28:1.0 29:1.0 30:1.0 31:1.0 32:0.312975 33:0.896078 34:0.988506 35:0.959596 36:1.0 37:1.0 38:1.0 39:1.0 40:0.973684 41:1.0 42:0.375305 43:0.916309 44:0.88 45:0.913462 46:1.0 47:1.0 48:1.0 49:1.0 50:1.0 51:1.0 52:0.404068 53:0.895366 54:0.830508 55:1.0 56:1.0 57:1.0 58:1.0 59:0.156051 60:0.587091 61:0.597551 62:0.727798 63:1.0 64:1.0 65:1.0 66:1.0 
-16.162162706412587 1:0.124656 2:0.021569 3:0.136034 4:0.028908 5:0.057907 6:0.013173 7:0.137702 8:0.026112 9:0.732177 10:0.659153 11:0.20971 12:0.671231 13:0.719539 14:0.388388 15:0.755129 16:0.466667 17:0.478667 18:0.785515 19:0.314685 20:0.238372 21:0.056 22:0.066354 23:0.21432 24:0.691176 25:0.238532 26:0.127476 27:0.051905 28:0.024246 29:0.236287 30:0.238462 31:0.034934 32:0.051329 33:0.16285 34:0.45977 35:0.222222 36:0.11909 37:0.023499 38:0.022836 39:0.172152 40:0.254386 41:0.026455 42:0.044097 43:0.14995 44:0.472 45:0.25 46:0.128488 47:0.012999 48:0.021323 49:0.095597 50:0.153846 51:0.016807 52:0.02008 53:0.128512 54:0.508475 55:0.202381 56:0.076433 57:0.009931 58:0.017595 59:0.403377 60:0.69674 61:0.048865 62:0.041193 63:0.009006 64:0.009558 65:0.002281 66:0.004198 
-7.225861533086135 1:0.111155 2:0.021655 3:0.154788 4:0.03554 5:0.092342 6:0.020005 7:0.149502 8:0.028213 9:0.696455 10:0.754361 11:0.574964 12:0.678589 13:0.71967 14:0.781316 15:0.329763 16:0.2 17:0.153653 18:0.595198 19:0.243141 20:0.273256 21:0.168 22:0.09396 23:0.183191 24:0.514706 25:0.431193 26:0.291779 27:0.208444 28:0.021781 29:0.207454 30:0.253846 31:0.19214 32:0.066665 33:0.149231 34:0.37931 35:0.30303 36:0.253254 37:0.194706 38:0.020941 39:0.147679 40:0.201754 41:0.142857 42:0.048015 43:0.131786 44:0.416 45:0.240385 46:0.194296 47:0.134902 48:0.019411 49:0.08805 50:0.153846 51:0.016807 52:0.024109 53:0.115134 54:0.440678 55:0.22619 56:0.142675 57:0.015606 58:0.016348 59:0.199531 60:0.720707 61:0.040162 62:0.042722 63:0.017468 64:0.006668 65:0.002562 66:0.00293 
-65.371521783651 1:0.230045 2:0.062778 3:0.204267 4:0.056113 5:0.22093 6:0.062438 7:0.211472 8:0.061165 9:0.528704 10:0.439278 11:0.225003 12:0.487201 13:0.603026 14:0.304091 15:0.051884 16:0.166667 17:0.04577 18:0.100437 19:0.273265 20:0.313953 21:0.252 22:0.087441 23:0.168164 24:0.926471 25:0.40367 26:0.366414 27:0.306461 28:0.059443 29:0.293952 30:0.353846 31:0.266376 32:0.039474 33:0.153798 34:0.333333 35:0.373737 36:0.380783 37:0.284183 38:0.059074 39:0.275949 40:0.307018 41:0.248677 42:0.025425 43:0.151024 44:0.52 45:0.423077 46:0.324134 47:0.251604 48:0.058163 49:0.249057 50:0.230769 51:0.252101 52:0.013119 53:0.162728 54:0.440678 55:0.261905 56:0.235669 57:0.252101 58:0.054798 59:0.181211 60:0.572858 61:0.045565 62:0.053668 63:0.069919 64:0.056838 65:0.058781 66:0.051447 
-9.56016570557723 1:0.122486 2:0.013336 3:0.103982 4:0.019059 5:0.045602 6:0.006773 7:0.066859 8:0.01084 9:0.769947 10:0.687217 11:0.601407 12:0.740565 13:0.736897 14:0.579492 15:0.76611 16:0.566667 17:0.549166 18:0.6522 19:0.428725 20:0.27907 21:0.116 22:0.055247 23:0.271173 24:0.970588 25:0.174312 26:0.119422 27:0.06821 28:0.015307 29:0.271449 30:0.207692 31:0.061135 32:0.026732 33:0.180178 34:0.298851 35:0.20202 36:0.084865 37:0.03075 38:0.012811 39:0.137553 40:0.157895 41:0.031746 42:0.017438 43:0.133614 44:0.472 45:0.240385 46:0.066237 47:0.01275 48:0.01011 49:0.07673 50:0.128205 51:0.016807 52:0.012898 53:0.096323 54:0.5 55:0.190476 56:0.053685 57:0.008739 58:0.007082 59:0.017832 60:0.78595 61:0.028418 62:0.022409 63:0.007378 64:0.007154 65:0.00166 66:0.00532 
-41.99368531443868 1:0.105436 2:0.016177 3:0.122366 4:0.02448 5:0.073329 6:0.013145 7:0.105413 8:0.019214 9:0.611863 10:0.651257 11:0.853025 12:0.614528 13:0.597819 14:0.772012 15:0.35542 16:0.266667 17:0.189585 18:0.517152 19:0.26681 20:0.19186 21:0.184 22:0.038718 23:0.175963 24:0.426471 25:0.357798 26:0.179828 27:0.187781 28:0.0177 29:0.25879 30:0.215385 31:0.174672 32:0.028522 33:0.172512 34:0.241379 35:0.232323 36:0.178063 37:0.153163 38:0.017006 39:0.187342 40:0.210526 41:0.121693 42:0.02171 43:0.151161 44:0.464 45:0.221154 46:0.166283 47:0.099421 48:0.015221 49:0.077987 50:0.102564 51:0.05042 52:0.007854 53:0.090445 54:0.415254 55:0.178571 56:0.079618 57:0.040966 58:0.010404 59:0.080986 60:0.544012 61:0.027614 62:0.027293 63:0.018023 64:0.007544 65:0.003468 66:0.00272 
-17.583586763274713 1:0.085609 2:0.010675 3:0.094466 4:0.016496 5:0.038797 6:0.006719 7:0.081627 8:0.01256 9:0.768805 10:0.731661 11:0.412042 12:0.708381 13:0.729231 14:0.478872 15:0.690606 16:0.4 17:0.404772 18:0.810255 19:0.305003 20:0.27907 21:0.064 22:0.09558 23:0.200871 24:0.338235 25:0.100917 26:0.16976 27:0.067246 28:0.012359 29:0.19128 30:0.207692 31:0.043668 32:0.037357 33:0.14135 34:0.367816 35:0.171717 36:0.121394 37:0.034074 38:0.010603 39:0.107173 40:0.114035 41:0.015873 42:0.016908 43:0.115472 44:0.44 45:0.211538 46:0.066237 47:0.008639 48:0.008872 49:0.054088 50:0.089744 51:0.016807 52:0.008512 53:0.079094 54:0.491525 55:0.154762 56:0.050955 57:0.010924 58:0.006076 59:0.41787 60:0.798381 61:0.025133 62:0.020015 63:0.006675 64:0.004041 65:0.001224 66:0.001301 
-14.98126538563322 1:0.103942 2:0.015687 3:0.093241 4:0.016178 5:0.056308 6:0.010805 7:0.10974 8:0.017027 9:0.63272 10:0.746642 11:0.341275 12:0.649611 13:0.729087 14:0.453302 15:0.577247 16:0.366667 17:0.33223 18:0.701964 19:0.273265 20:0.22093 21:0.124 22:0.054418 23:0.184635 24:0.323529 25:0.192661 26:0.151639 27:0.111653 28:0.018196 29:0.223629 30:0.215385 31:0.091703 32:0.039931 33:0.151012 34:0.413793 35:0.181818 36:0.136045 37:0.069349 38:0.017068 39:0.145148 40:0.201754 41:0.058201 42:0.030818 43:0.127056 44:0.408 45:0.201923 46:0.124931 47:0.038569 48:0.015372 49:0.075472 50:0.128205 51:0.016807 52:0.012193 53:0.097255 54:0.457627 55:0.190476 56:0.077707 57:0.011499 58:0.012145 59:0.195096 60:0.66509 61:0.03014 62:0.030249 63:0.011737 64:0.005783 65:0.00224 66:0.002507 
-7.119545082322513 1:0.384949 2:0.175537 3:0.415809 4:0.194399 5:0.40431 6:0.186317 7:0.414905 8:0.215126 9:0.446899 10:0.477347 11:0.214373 12:0.622821 13:0.454201 14:0.369824 15:0.001124 16:0.133333 17:0.022215 18:0.03608 19:0.38354 20:0.476744 21:0.552 22:0.275337 23:0.278334 24:0.926471 25:0.559633 26:0.586558 27:0.637777 28:0.174512 29:0.419831 30:0.523077 31:0.497817 32:0.194741 33:0.273071 34:0.770115 35:0.565657 36:0.614832 37:0.554745 38:0.174211 39:0.435443 40:0.54386 41:0.481481 42:0.212313 43:0.293822 44:0.664 45:0.586538 46:0.6365 47:0.524786 48:0.173745 49:0.456604 50:0.564103 51:0.605042 52:0.267759 53:0.325617 54:0.508475 55:0.642857 56:0.638535 57:0.655462 58:0.170706 59:0.058616 60:0.617873 61:0.103579 62:0.125627 63:0.236334 64:0.176527 65:0.107529 66:0.184015 
-87.9104850333435 1:0.114217 2:0.016784 3:0.101778 4:0.018451 5:0.051 6:0.010043 7:0.109444 8:0.018373 9:0.704662 10:0.620519 11:0.397515 12:0.64846 13:0.451729 14:0.432298 15:0.654941 16:0.466667 17:0.426237 18:0.651887 19:0.344271 20:0.215116 21:0.152 22:0.06057 23:0.219333 24:0.308824 25:0.12844 26:0.116738 27:0.104502 28:0.019123 29:0.218706 30:0.192308 31:0.043668 32:0.037995 33:0.153369 34:0.37931 35:0.191919 36:0.096975 37:0.028535 38:0.017183 39:0.145148 40:0.157895 41:0.026455 42:0.026317 43:0.139782 44:0.44 45:0.240385 46:0.079577 47:0.012999 48:0.015566 49:0.08805 50:0.128205 51:0.016807 52:0.019256 53:0.113471 54:0.466102 55:0.22619 56:0.063694 57:0.009931 58:0.01261 59:0.310397 60:0.643104 61:0.033991 62:0.030404 63:0.013493 64:0.00644 65:0.00181 66:0.003449 
-5.1147463804712565 1:0.076684 2:0.009143 3:0.059297 4:0.008454 5:0.0486 6:0.007164 7:0.066841 8:0.009261 9:0.568802 10:0.642409 11:0.729702 12:0.588198 13:0.611984 14:0.734167 15:0.384513 16:0.266667 17:0.201296 18:0.567596 19:0.242066 20:0.162791 21:0.176 22:0.027254 23:0.161876 24:0.411765 25:0.211009 26:0.159693 27:0.181754 28:0.011182 29:0.209564 30:0.161538 31:0.157205 32:0.01884 33:0.133254 34:0.252874 35:0.20202 36:0.139362 37:0.139316 38:0.010284 39:0.139241 40:0.131579 41:0.079365 42:0.013226 43:0.109052 44:0.392 45:0.201923 46:0.106256 47:0.065164 48:0.008672 49:0.050314 50:0.076923 51:0.016807 52:0.006726 53:0.057405 54:0.40678 55:0.142857 56:0.06051 57:0.013655 58:0.005033 59:0.184286 60:0.538156 61:0.016119 62:0.014985 63:0.0116 64:0.004025 65:0.001173 66:0.001981 
-0.8002039041422433 1:0.082412 2:0.01541 3:0.130779 4:0.027165 5:0.064874 6:0.014105 7:0.136321 8:0.026659 9:0.702933 10:0.757251 11:0.49714 12:0.682429 13:0.705844 14:0.809364 15:0.426655 16:0.2 17:0.188757 18:0.781866 19:0.244217 20:0.354651 21:0.104 22:0.145277 23:0.168847 24:0.338235 25:0.412844 26:0.359433 27:0.153342 28:0.012502 29:0.178622 30:0.307692 31:0.052402 32:0.093564 33:0.119091 34:0.287356 35:0.262626 36:0.299695 37:0.068099 38:0.011374 39:0.123207 40:0.27193 41:0.026455 42:0.060681 43:0.112251 44:0.448 45:0.278846 46:0.258326 47:0.027236 48:0.010115 49:0.066667 50:0.153846 52:0.027708 53:0.087931 54:0.449153 55:0.214286 56:0.142675 58:0.007238 59:0.475143 60:0.68234 61:0.02685 62:0.025781 63:0.020263 64:0.005895 65:0.002222 66:0.001867 
-60.26574126442344 1:0.07263 2:0.008653 3:0.076836 4:0.012182 5:0.03289 6:0.005604 7:0.073776 8:0.010301 9:0.655482 10:0.427928 11:0.182542 12:0.675116 13:0.549791 14:0.245152 15:0.669068 16:0.366667 17:0.374737 18:0.840405 19:0.221625 20:0.180233 21:0.06 22:0.049346 23:0.154334 24:0.514706 25:0.220183 26:0.129087 27:0.071052 28:0.009612 29:0.182841 30:0.207692 31:0.030568 32:0.03548 33:0.131424 34:0.321839 35:0.181818 36:0.131622 37:0.028535 38:0.008767 39:0.110549 40:0.157895 41:0.015873 42:0.021416 43:0.098268 44:0.44 45:0.201923 46:0.098252 47:0.009721 48:0.007219 49:0.026415 50:0.064103 52:0.004325 53:0.045972 54:0.466102 55:0.142857 56:0.03949 58:0.004019 59:0.923277 60:0.608835 61:0.02079 62:0.016131 63:0.005018 64:0.003902 65:0.001245 66:8.85E-4 
-16.261372456357645 1:0.088082 2:0.014809 3:0.099814 4:0.017916 5:0.064035 6:0.012718 7:0.120316 8:0.019767 9:0.618692 10:0.716567 11:0.541224 12:0.682198 13:0.657029 14:0.835652 15:0.470454 16:0.233333 17:0.220258 18:0.787489 19:0.22539 20:0.226744 21:0.148 22:0.054482 23:0.168914 24:0.617647 25:0.348624 26:0.226322 27:0.174924 28:0.015857 29:0.186357 30:0.207692 31:0.165939 32:0.040127 33:0.136717 34:0.298851 35:0.191919 36:0.191131 37:0.157779 38:0.014997 39:0.12827 40:0.166667 41:0.111111 42:0.029368 43:0.120705 44:0.456 45:0.192308 46:0.146274 47:0.097709 48:0.013777 49:0.08805 50:0.115385 51:0.058824 52:0.014601 53:0.11558 54:0.449153 55:0.190476 56:0.097858 57:0.05098 58:0.011759 59:0.042367 60:0.600198 61:0.031937 62:0.028472 63:0.008627 64:0.006451 65:0.001188 66:0.002485 
-116.85207010336588 1:0.127226 2:0.016113 3:0.093525 4:0.016251 5:0.068625 6:0.010572 7:0.075898 8:0.012005 9:0.780259 10:0.576472 11:0.43377 12:0.713991 13:0.636678 14:0.533039 15:0.47885 16:0.4 17:0.302481 18:0.504285 19:0.401291 20:0.273256 21:0.192 22:0.036351 23:0.235199 24:0.411765 25:0.174312 26:0.16674 27:0.144388 28:0.015506 29:0.273558 30:0.176923 31:0.139738 32:0.013414 33:0.159832 34:0.287356 35:0.161616 36:0.104807 37:0.095003 38:0.013337 39:0.160338 40:0.157895 41:0.079365 42:0.0133 43:0.135144 44:0.504 45:0.230769 46:0.091249 47:0.049748 48:0.010935 49:0.07044 50:0.102564 51:0.033613 52:0.01137 53:0.076945 54:0.533898 55:0.130952 56:0.058121 57:0.021849 58:0.006728 59:0.069455 60:0.833703 61:0.028191 62:0.021993 63:0.010807 64:0.010172 65:0.005083 66:0.010866 
-7.446162346566968 1:0.405204 2:0.226725 3:0.607595 4:0.390276 5:0.232695 6:0.141829 7:0.581787 8:0.297305 9:0.853032 10:0.79264 11:0.497711 12:0.863873 13:0.776556 14:0.554701 15:0.757332 16:0.5 17:0.501227 18:0.735912 19:0.862829 20:0.889535 21:0.192 22:0.789294 23:0.783353 24:0.970588 25:0.816514 26:0.403434 27:0.118604 28:0.237764 29:0.772855 30:0.953846 31:0.113537 32:0.714501 33:0.742824 34:0.965517 35:0.959596 36:0.435876 37:0.064659 38:0.234964 39:0.647257 40:0.868421 41:0.037037 42:0.654534 43:0.744905 44:0.824 45:0.875 46:0.415872 47:0.017874 48:0.231451 49:0.597484 50:0.884615 51:0.016807 52:0.673483 53:0.873596 54:0.754237 55:0.845238 56:0.416024 57:0.009499 58:0.225044 59:0.192405 60:0.843172 61:0.532288 62:0.440495 63:0.142673 64:0.071828 65:0.009487 66:0.005131 
