svm_type c_svc
kernel_type rbf
gamma 0.1
nr_class 2
total_sv 16
rho -10.2192
label 1 2
nr_sv 9 7
SV
245.343339923714 1:0.294 2:0.287 3:0.176 4:0.38 5:0.326 6:0.171 7:0.156 8:0.079 9:0.021 10:0.3 11:0.038 12:0.131 13:0.113 14:0.022 15:0.517 16:0.142 17:0.088 18:0.245 
271.5296876834649 1:0.44 2:0.307 3:0.236 4:0.448 5:0.363 6:0.29 7:0.615 8:0.342 9:0.236 10:0.312 11:0.058 12:0.085 13:0.081 14:0.214 15:0.809 16:0.253 17:0.078 18:0.21 
95.29139762046899 1:0.157 2:0.034 3:0.013 4:0.228 5:0.118 6:0.082 7:0.23 8:0.316 9:0.093 10:0.024 11:0.048 12:0.107 13:0.078 14:0.085 15:0.5 16:0.194 17:0.058 18:0.025 
105.9899538250621 1:0 2:0 3:0.046 4:0.117 5:0.133 6:0.133 7:-0 8:0.026 9:-0 10:0.036 11:0.245 12:0.26 13:0.157 14:0.143 15:0.836 16:0.177 17:0.06 18:0 
127.0379194672796 1:0.695 2:0.64 3:0.645 4:0.673 5:0.701 6:0.653 7:0.15 8:0.079 9:0.021 10:0.287 11:0.18 12:0.194 13:0.178 14:0.123 15:0.753 16:0.184 17:0.739 18:0.44 
66.81291169944831 1:0.434 2:0.296 3:0.213 4:0.453 5:0.277 6:0.256 7:0.197 8:0.105 9:0.033 10:0.294 11:0.115 12:0.18 13:0.139 14:0.106 15:0.678 16:0.233 17:0.232 18:0.341 
410.8796289599559 1:0.121 2:0.07 3:0.052 4:0.19 5:0.122 6:0.088 7:0.158 8:0.211 9:0.048 10:0.039 11:0.053 12:0.133 13:0.095 14:0.044 15:0.629 16:0.132 17:0.171 18:0.135 
12.72711502408494 1:0.334 2:0.336 3:0.377 4:0.427 5:0.37 6:0.37 7:0.117 8:0.053 9:0.013 10:0.317 11:0.305 12:0.36 13:0.248 14:0.203 15:0.833 16:0.326 17:0.102 18:0.353 
678.2121122986169 1:0.149 2:0.072 3:0.093 4:0.223 5:0.158 6:0.118 7:0.049 8:0.079 9:0.009 10:0.047 11:0.106 12:0.199 13:0.127 14:-0 15:0.54 16:0.128 17:0.062 18:0.088 
-160.0522154304056 1:0.596 2:0.494 3:0.443 4:0.542 5:0.518 6:0.427 7:0.505 8:0.368 9:0.21 10:0.196 11:0.138 12:0.244 13:0.206 14:0.118 15:0.736 16:0.337 17:0.126 18:0.295 
-106.6268049593102 1:0.473 2:0.42 3:0.422 4:0.445 5:0.468 6:0.438 7:0.411 8:0.289 9:0.142 10:0.209 11:0.116 12:0.218 13:0.185 14:0.086 15:0.686 16:0.288 17:0.045 18:0.229 
-31.67600046367351 1:0.491 2:0.449 3:0.483 4:0.466 5:0.449 6:0.425 7:0.231 8:0.105 9:0.037 10:0.361 11:0.309 12:0.268 13:0.174 14:0.389 15:0.687 16:0.285 17:0.478 18:0.39 
-1096.190798694191 1:0.188 2:0.147 3:0.078 4:0.242 5:0.194 6:0.107 7:0.082 8:0.105 9:0.016 10:0.068 11:0.082 12:0.105 13:0.072 14:0.055 15:0.552 16:0.128 17:0.033 18:0.123 
-74.73094772178676 1:0.117 2:0.055 3:0.083 4:0.153 5:0.135 6:0.124 7:0.073 8:0.132 9:0.018 10:0.01 11:0.811 12:0.635 13:0.386 14:0.229 15:0.322 16:0.264 17:0.144 18:0.106 
-173.1039913055254 1:0.241 2:0.143 3:0.181 4:0.252 5:0.216 6:0.209 7:0.193 8:0.158 9:0.044 10:0.157 11:0.036 12:0.069 13:0.058 14:0.017 15:0.873 16:0.115 17:0.749 18:0.11 
-371.4433079272031 1:0.248 2:0.158 3:0.137 4:0.254 5:0.228 6:0.144 7:0.219 8:0.184 9:0.056 10:0.149 11:0.088 12:0.107 13:0.078 14:0.084 15:0.716 16:0.128 17:0.157 18:0.115 
