svm_type c_svc
kernel_type rbf
gamma 0.1
nr_class 2
total_sv 15
rho -19.6945
label 1 2
nr_sv 7 8
SV
664.4814947365271 1:0.44 2:0.307 3:0.236 4:0.448 5:0.363 6:0.615 7:0.312 8:0.058 9:0.085 10:0.081 11:0.214 
459.5425762513289 1:0.695 2:0.64 3:0.645 4:0.673 5:0.701 6:0.15 7:0.287 8:0.18 9:0.194 10:0.178 11:0.123 
6.333873378056254 1:0.434 2:0.296 3:0.213 4:0.453 5:0.277 6:0.197 7:0.294 8:0.115 9:0.18 10:0.139 11:0.106 
1172.940746497841 1:0.121 2:0.07 3:0.052 4:0.19 5:0.122 6:0.158 7:0.039 8:0.053 9:0.133 10:0.095 11:0.044 
155.9153650263957 1:0.334 2:0.336 3:0.377 4:0.427 5:0.37 6:0.117 7:0.317 8:0.305 9:0.36 10:0.248 11:0.203 
12.8253508225289 1:0.237 2:0.247 3:0.289 4:0.054 5:0.062 6:0.093 7:0.405 8:0.289 9:0.404 10:0.314 11:0.055 
965.8906307293803 1:0.149 2:0.072 3:0.093 4:0.223 5:0.158 6:0.049 7:0.047 8:0.106 9:0.199 10:0.127 11:-0 
-725.7131390525518 1:0.596 2:0.494 3:0.443 4:0.542 5:0.518 6:0.505 7:0.196 8:0.138 9:0.244 10:0.206 11:0.118 
-27.52347474125264 1:0.759 2:0.734 3:0.652 4:0.609 5:0.628 6:0.487 7:0.32 8:0.937 9:0.704 10:0.584 11:0.988 
-48.61082658318138 1:0.491 2:0.449 3:0.483 4:0.466 5:0.449 6:0.231 7:0.361 8:0.309 9:0.268 10:0.174 11:0.389 
-1111.539391188101 1:0.188 2:0.147 3:0.078 4:0.242 5:0.194 6:0.082 7:0.068 8:0.082 9:0.105 10:0.072 11:0.055 
-337.8679227743482 1:0.07 2:0.054 3:0.09 4:0.142 5:0.141 6:0.086 7:0.031 8:0.224 9:0.182 10:0.095 11:0.154 
-19.44895548908187 1:0.28 2:0.033 3:0.065 4:0.235 5:0.142 6:0.17 7:0.053 8:0.825 9:0.636 10:0.479 11:0.762 
-55.34506424458699 1:0.117 2:0.055 3:0.083 4:0.153 5:0.135 6:0.073 7:0.01 8:0.811 9:0.635 10:0.386 11:0.229 
-1111.881263368951 1:0.241 2:0.143 3:0.181 4:0.252 5:0.216 6:0.193 7:0.157 8:0.036 9:0.069 10:0.058 11:0.017 
